3.689112141728401184e-02
4.812039807438850403e-02
-3.057511150836944580e-02
2.943516336381435394e-02
4.244894534349441528e-02
3.318483382463455200e-02
-4.726285487413406372e-02
-2.316998876631259918e-02
2.336045168340206146e-02
-1.201425679028034210e-02
1.570215448737144470e-02
4.346065968275070190e-02
-3.229070082306861877e-02
-4.999740794301033020e-02
-4.278270900249481201e-02
-1.314260298386216164e-03
-4.755112528800964355e-02
-5.990110337734222412e-03
-4.600561782717704773e-02
2.221568254753947258e-03
3.993351384997367859e-02
-3.607141971588134766e-02
3.640624135732650757e-02
-5.635711364448070526e-03
2.075331471860408783e-02
2.976066991686820984e-02
1.398911699652671814e-03
-2.652120962738990784e-02
2.319858781993389130e-02
-1.061736792325973511e-02
2.466352470219135284e-02
-2.490495890378952026e-02
-3.921163454651832581e-02
9.096181951463222504e-03
3.885263809934258461e-03
-2.109390310943126678e-02
-4.657751321792602539e-02
1.723679900169372559e-02
9.053616784512996674e-03
-4.533316567540168762e-02
-1.203342247754335403e-02
3.415075829252600670e-03
-4.500116780400276184e-02
-3.424464166164398193e-02
1.146195270121097565e-02
-3.634916990995407104e-02
-1.828832179307937622e-02
-1.008241530507802963e-02
2.837705612182617188e-02
-3.529514744877815247e-02
-4.819630458950996399e-02
4.733559861779212952e-02
1.849449425935745239e-02
-1.707052811980247498e-02
-3.155421093106269836e-02
3.888954594731330872e-02
-2.765702269971370697e-02
1.652217470109462738e-02
3.858896717429161072e-02
3.422485664486885071e-02
-3.802603483200073242e-02
1.675947383046150208e-02
-2.425008639693260193e-02
2.652669697999954224e-02
-3.794225305318832397e-02
-3.719975054264068604e-02
3.082929924130439758e-02
-4.255019873380661011e-02
-2.073147334158420563e-02
2.680901251733303070e-02
1.790823182091116905e-03
2.944414317607879639e-02
1.482891011983156204e-02
-3.701798990368843079e-02
-3.623607009649276733e-02
-2.222347259521484375e-02
-4.549022018909454346e-02
1.648144051432609558e-02
-4.600987955927848816e-02
-4.200908355414867401e-03
-1.297522988170385361e-02
-1.256837788969278336e-02
2.291598543524742126e-02
-4.146068915724754333e-02
-4.250183328986167908e-02
4.142833128571510315e-02
1.273116841912269592e-02
-3.211214765906333923e-02
4.298193007707595825e-02
-1.134411245584487915e-02
-7.187393959611654282e-03
2.277248539030551910e-02
1.984976604580879211e-02
-4.492894187569618225e-02
-4.063709452748298645e-02
1.836666651070117950e-02
2.962437644600868225e-02
-1.358658354729413986e-02
1.477513182908296585e-02
-1.972320117056369781e-02
-4.856488108634948730e-02
2.892402186989784241e-02
-4.895994067192077637e-02
-4.097449406981468201e-02
-4.005739465355873108e-02
-1.968782022595405579e-02
-3.902792930603027344e-02
9.738604538142681122e-03
-4.220429342240095139e-03
-3.286290168762207031e-02
-1.572868041694164276e-02
3.071088902652263641e-02
3.362946957349777222e-02
-1.545125991106033325e-02
2.077093161642551422e-02
-5.394000094383955002e-03
2.237916551530361176e-02
-4.644531011581420898e-02
-4.694317653775215149e-02
3.412223979830741882e-02
3.304146602749824524e-02
1.275422703474760056e-02
-2.244099974632263184e-02
-4.200904443860054016e-02
-7.790057919919490814e-03
1.451278477907180786e-02
-8.698597550392150879e-03
4.862031713128089905e-02
1.832800358533859253e-02
8.338904008269309998e-03
-3.794840350747108459e-02
-1.174850948154926300e-02
2.700588107109069824e-02
8.344633533852174878e-05
-1.011086162179708481e-03
-2.186776138842105865e-02
1.880788244307041168e-02
1.245600078254938126e-02
8.256728760898113251e-03
1.848789863288402557e-02
1.716028084047138691e-03
-2.500481717288494110e-02
-4.593617841601371765e-02
1.157068554311990738e-02
-7.259333040565252304e-03
-3.900061175227165222e-02
3.361777961254119873e-02
7.017234340310096741e-03
9.735791012644767761e-03
3.915790934115648270e-03
2.105515263974666595e-02
4.748366400599479675e-02
4.181968420743942261e-02
-4.349971190094947815e-02
2.027116529643535614e-02
-9.125438518822193146e-04
-1.379081397317349911e-03
1.002727542072534561e-02
-6.060095503926277161e-03
-2.248223684728145599e-02
2.520086430013179779e-02
2.403873391449451447e-02
-1.862902566790580750e-02
2.118873223662376404e-02
-4.714772105216979980e-02
2.658199891448020935e-02
3.611657535657286644e-03
-1.882818341255187988e-02
-3.084164112806320190e-03
-1.115310005843639374e-02
2.548143267631530762e-02
3.207563236355781555e-02
1.780327036976814270e-02
-4.293142259120941162e-02
-1.441345736384391785e-02
3.101585060358047485e-02
-5.692609585821628571e-03
-6.603638641536235809e-03
-3.599144052714109421e-03
-1.987209171056747437e-02
-1.078947260975837708e-02
3.963951021432876587e-02
-1.089458726346492767e-02
3.553828923031687737e-03
-9.337937459349632263e-03
-3.487253934144973755e-02
-8.878957480192184448e-03
3.907773643732070923e-03
1.554508134722709656e-02
2.324080653488636017e-02
-1.976953819394111633e-02
-4.913147538900375366e-02
-3.918497264385223389e-02
2.842310257256031036e-02
3.396671637892723083e-02
-9.749854216352105141e-04
-1.151490118354558945e-02
-2.837228775024414062e-02
-4.740503057837486267e-02
4.665465652942657471e-02
5.316020920872688293e-03
4.275119304656982422e-02
1.695220172405242920e-02
-2.549140341579914093e-02
6.866727024316787720e-03
-2.498056367039680481e-02
4.338162019848823547e-02
-1.441670395433902740e-02
-3.113214625045657158e-03
6.157522555440664291e-03
-4.066167399287223816e-02
4.919855296611785889e-02
3.291965648531913757e-02
-2.379534952342510223e-02
2.614178229123353958e-03
-2.633486688137054443e-02
-4.440164938569068909e-02
4.085825011134147644e-02
-6.146190222352743149e-03
-5.048504564911127090e-03
-1.691278629004955292e-02
-1.008896064013242722e-02
3.277693642303347588e-03
-3.092903271317481995e-02
2.847481146454811096e-02
4.302037507295608521e-02
1.368194166570901871e-02
-1.437186915427446365e-02
2.601078711450099945e-02
-3.550155460834503174e-02
-8.279292844235897064e-03
2.023865468800067902e-02
-4.453833773732185364e-02
-2.901244349777698517e-02
2.682391088455915451e-03
4.877946898341178894e-02
1.436430681496858597e-02
-3.414225950837135315e-02
1.815629564225673676e-02
-2.074734307825565338e-02
3.571768105030059814e-02
-8.376388810575008392e-03
3.350278362631797791e-02
-4.611830692738294601e-03
5.635188892483711243e-03
8.930341340601444244e-03
4.159477725625038147e-02
2.391518466174602509e-02
-2.960737049579620361e-02
2.186108194291591644e-02
-4.987810179591178894e-02
-3.951835259795188904e-02
3.040194697678089142e-02
-1.703748665750026703e-02
1.863095350563526154e-02
7.896909490227699280e-03
2.571570314466953278e-02
3.150397166609764099e-02
-4.973638802766799927e-02
-2.180687710642814636e-02
4.119080677628517151e-02
6.074524484574794769e-03
-2.297653816640377045e-02
-2.448924072086811066e-02
-3.354465961456298828e-02
-1.020109932869672775e-02
3.028127364814281464e-02
-1.222604652866721153e-03
1.731919869780540466e-02
3.588929399847984314e-02
1.287724822759628296e-02
3.491909056901931763e-02
4.875641688704490662e-02
3.197519108653068542e-02
-7.496950682252645493e-03
2.578378096222877502e-02
-1.377350557595491409e-02
-3.675196319818496704e-02
2.632254362106323242e-02
-2.163446135818958282e-02
4.702729359269142151e-02
3.292569890618324280e-02
-9.479181841015815735e-03
4.980704188346862793e-02
4.293507337570190430e-02
3.101307898759841919e-03
4.575843364000320435e-02
4.459311068058013916e-02
2.861230447888374329e-02
-1.023634569719433784e-03
3.396831220015883446e-03
-1.606981083750724792e-02
-1.330775301903486252e-02
4.344348609447479248e-02
-3.305333480238914490e-02
1.315457932651042938e-02
1.587188243865966797e-02
-2.566585130989551544e-02
6.414607632905244827e-03
-1.204044278711080551e-02
1.690580695867538452e-02
-1.331524644047021866e-02
-4.075351729989051819e-02
-3.219613060355186462e-02
8.610911667346954346e-03
3.771790489554405212e-02
2.205340890213847160e-03
-2.857505716383457184e-02
2.622567489743232727e-02
-1.526453066617250443e-02
1.832336001098155975e-02
3.800120949745178223e-02
2.178986556828022003e-02
2.094598859548568726e-02
3.054777532815933228e-02
4.990062490105628967e-02
-4.860175773501396179e-02
2.211317420005798340e-02
1.660318113863468170e-02
8.065743371844291687e-03
-2.221880666911602020e-02
-2.526231482625007629e-02
2.294530533254146576e-02
-7.624051533639431000e-03
3.800830990076065063e-02
-4.855959489941596985e-02
4.594935849308967590e-02
-2.687630243599414825e-02
1.539340242743492126e-03
-1.619831845164299011e-02
3.608363494277000427e-02
4.989522323012351990e-02
1.911324821412563324e-02
-2.048502676188945770e-03
-2.068120613694190979e-02
3.767058253288269043e-02
-3.008597344160079956e-02
1.419112458825111389e-02
-1.638857834041118622e-02
3.386735916137695312e-02
-6.905422545969486237e-03
-3.220615535974502563e-02
4.920078441500663757e-02
-2.752459980547428131e-02
-2.984423004090785980e-02
3.879694268107414246e-02
-3.537206212058663368e-03
2.269024262204766273e-03
-1.025866717100143433e-02
-4.927019774913787842e-02
4.960340633988380432e-02
2.425465732812881470e-02
2.938621863722801208e-02
-4.320496693253517151e-02
3.331530094146728516e-02
3.169185668230056763e-02
-3.526471555233001709e-02
-4.329009726643562317e-02
-2.515252493321895599e-02
1.702229119837284088e-02
-4.458300396800041199e-02
-3.297419100999832153e-02
-3.653759881854057312e-02
-1.398342195898294449e-02
-4.358556494116783142e-02
2.960010617971420288e-02
3.575559332966804504e-02
-2.678379043936729431e-02
2.883028611540794373e-02
4.232584312558174133e-02
-4.387066885828971863e-02
-2.770157344639301300e-02
7.316927658393979073e-04
-2.828967943787574768e-02
3.882891312241554260e-02
-3.668366745114326477e-02
-7.695489563047885895e-03
-4.268571361899375916e-02
7.922085002064704895e-03
3.399535641074180603e-02
-1.777647994458675385e-02
2.857696451246738434e-02
3.581903502345085144e-02
-3.933128342032432556e-02
-3.175999224185943604e-02
-3.400432690978050232e-02
-8.007444441318511963e-03
-2.232453087344765663e-03
2.798558957874774933e-02
-4.431863874197006226e-02
6.120525300502777100e-03
9.706745913717895746e-06
-3.342443332076072693e-02
-3.596326708793640137e-02
3.973462432622909546e-02
1.989823020994663239e-02
-3.091248497366905212e-02
-2.142739295959472656e-02
4.836369305849075317e-02
-2.147979661822319031e-02
-4.862309247255325317e-02
7.444352377206087112e-03
2.983970195055007935e-02
-2.366240601986646652e-03
-4.232612624764442444e-02
2.149262838065624237e-02
-1.276460848748683929e-02
-2.677173726260662079e-02
-4.541693720966577530e-03
-7.034530397504568100e-03
-1.207934413105249405e-02
-4.788402467966079712e-02
1.586880721151828766e-02
2.771376166492700577e-03
-4.083359614014625549e-02
-4.270306602120399475e-02
5.898854229599237442e-03
4.077335447072982788e-02
4.246810078620910645e-02
-5.616389171336777508e-05
5.675908178091049194e-03
-1.937712915241718292e-02
-4.406356438994407654e-02
1.744406111538410187e-02
-2.416717633605003357e-02
3.443413972854614258e-02
-2.113439841195940971e-03
4.121784493327140808e-02
-2.394514158368110657e-02
-1.880734926089644432e-03
-3.846927359700202942e-02
2.803030237555503845e-02
2.542453072965145111e-02
1.150112599134445190e-03
4.300612956285476685e-02
3.108575474470853806e-03
-2.954267151653766632e-02
-1.972679048776626587e-02
4.017115384340286255e-02
-1.865352317690849304e-02
3.470853716135025024e-02
-3.547986596822738647e-02
-2.361622639000415802e-02
-1.653324812650680542e-02
-1.549458410590887070e-02
2.137043140828609467e-02
4.874546453356742859e-02
-3.829614818096160889e-02
-2.559326239861547947e-04
-2.541588619351387024e-03
-1.305930130183696747e-02
-9.017846896313130856e-04
-2.669665217399597168e-02
-3.014604374766349792e-02
2.064438536763191223e-02
-3.940868750214576721e-02
-3.019700571894645691e-02
1.219533383846282959e-02
1.936685666441917419e-02
-2.839284762740135193e-02
1.529154554009437561e-02
-4.054394736886024475e-02
-2.134615369141101837e-02
-1.064469013363122940e-02
5.754118319600820541e-03
3.686394542455673218e-02
2.534814365208148956e-02
-2.760327048599720001e-02
1.648583821952342987e-02
-2.606200985610485077e-03
1.353350561112165451e-02
4.372937604784965515e-02
2.067583613097667694e-02
-3.634332865476608276e-02
1.979480311274528503e-02
2.787053957581520081e-02
1.253088377416133881e-02
-4.481735080480575562e-02
-2.448339946568012238e-02
8.202272467315196991e-03
-1.818521134555339813e-02
1.370587619021534920e-03
4.559731483459472656e-02
-4.643568024039268494e-02
1.181760337203741074e-02
4.946407675743103027e-02
-3.057423420250415802e-02
1.182866562157869339e-02
-4.787207022309303284e-02
4.093617573380470276e-02
5.466682836413383484e-03
-4.380549117922782898e-02
-3.458676626905798912e-03
-1.040046475827693939e-02
4.237917810678482056e-02
-4.513590538408607244e-04
-4.897164553403854370e-02
-1.561708189547061920e-02
4.161612689495086670e-02
-2.555257640779018402e-02
3.241195902228355408e-02
2.469050884246826172e-02
3.865282610058784485e-02
-3.880780562758445740e-02
-2.446920983493328094e-02
-1.096799783408641815e-02
-3.653698414564132690e-02
4.558980837464332581e-02
-4.390882328152656555e-02
-3.427403047680854797e-02
-8.376749232411384583e-03
-1.685794442892074585e-02
3.969641774892807007e-02
1.272015832364559174e-02
1.539624202996492386e-02
-1.969505846500396729e-02
5.047366023063659668e-03
-1.530265621840953827e-02
3.018549643456935883e-03
4.867928102612495422e-02
3.360290080308914185e-03
4.654607735574245453e-03
2.968150936067104340e-02
-2.281446009874343872e-02
-8.947562426328659058e-03
8.549501653760671616e-04
2.664919756352901459e-02
-1.636289991438388824e-02
-2.505130320787429810e-02
3.600402548909187317e-02
5.389604251831769943e-03
-4.468077793717384338e-02
2.482427284121513367e-03
1.069629006087779999e-02
4.091846197843551636e-02
-1.740469713695347309e-03
-1.625592820346355438e-02
-3.414376173168420792e-03
-3.545287624001502991e-02
-2.637802436947822571e-02
3.714422881603240967e-02
2.187567204236984253e-02
8.132630027830600739e-03
3.808046132326126099e-02
3.500870242714881897e-02
1.162856351584196091e-02
3.171118348836898804e-02
-4.935449361801147461e-02
2.308492548763751984e-02
3.070766292512416840e-02
1.309776445850729942e-03
-4.237115755677223206e-02
1.472246926277875900e-02
2.788200229406356812e-02
3.487734496593475342e-02
-3.560582175850868225e-02
-4.218141362071037292e-02
3.585107624530792236e-02
-4.283553361892700195e-02
3.867022693157196045e-03
-4.063581302762031555e-02
-2.188968099653720856e-02
1.800404116511344910e-02
-4.729362949728965759e-02
-2.628926932811737061e-02
2.603540383279323578e-02
3.267632797360420227e-02
-3.173843771219253540e-02
-4.039144143462181091e-02
-2.868933416903018951e-02
-3.914475440979003906e-02
-1.671101897954940796e-02
4.554320126771926880e-02
3.170167654752731323e-02
-1.146800443530082703e-02
9.555481374263763428e-03
-2.519155479967594147e-02
-9.817083366215229034e-03
1.429658383131027222e-03
-4.541901405900716782e-03
-4.704885184764862061e-02
5.144999362528324127e-03
-3.405911102890968323e-02
-2.144686505198478699e-02
4.017035290598869324e-02
4.441627487540245056e-02
-1.073338650166988373e-02
-8.900264278054237366e-03
-4.228376597166061401e-02
-3.198155388236045837e-02
6.865061353892087936e-03
2.255663042888045311e-03
-1.779044046998023987e-02
4.188217595219612122e-02
3.090186975896358490e-02
-3.788414597511291504e-02
1.843184698373079300e-03
4.935497883707284927e-03
1.967652887105941772e-02
-1.875026896595954895e-02
2.331374026834964752e-02
-2.404905855655670166e-02
1.269987225532531738e-02
-1.994607970118522644e-02
-3.777704760432243347e-02
4.945454001426696777e-02
-2.662411704659461975e-02
1.052999030798673630e-02
-3.671941161155700684e-02
3.620260395109653473e-03
-4.743831232190132141e-02
-1.198605867102742195e-03
4.221271723508834839e-02
2.844130247831344604e-02
-3.229951858520507812e-02
-2.566800452768802643e-02
3.763007745146751404e-02
-3.353418037295341492e-02
4.370377957820892334e-02
-1.457358710467815399e-03
2.713084779679775238e-02
-1.211630180478096008e-02
-3.609853237867355347e-02
2.364429086446762085e-02
3.331045806407928467e-02
-2.778153866529464722e-02
5.369016900658607483e-03
3.446869552135467529e-02
-3.285833448171615601e-02
-3.976142499595880508e-03
4.790744930505752563e-02
3.626168519258499146e-02
4.419056698679924011e-02
-4.572893679141998291e-02
2.625225298106670380e-02
-3.684731572866439819e-02
-3.540105372667312622e-02
-1.145447324961423874e-02
5.939135327935218811e-03
-3.636477980762720108e-03
-5.089689046144485474e-03
1.336074527353048325e-02
2.413268387317657471e-02
-4.466709122061729431e-02
-1.418816298246383667e-02
4.343528300523757935e-02
2.132499217987060547e-02
-3.083228692412376404e-02
3.619759529829025269e-02
-1.504546497017145157e-02
-3.421344608068466187e-02
3.678030893206596375e-02
-4.325061291456222534e-02
-6.437221076339483261e-03
8.019388653337955475e-03
1.469719316810369492e-02
-9.452527388930320740e-03
1.614853739738464355e-02
-2.162040583789348602e-02
3.429638454690575600e-03
3.521095588803291321e-02
-4.309244453907012939e-02
-1.231912989169359207e-02
1.622715778648853302e-02
-3.783148899674415588e-02
-3.937138244509696960e-02
4.067341238260269165e-02
4.670025408267974854e-02
3.342634439468383789e-02
-4.015815630555152893e-02
1.833447255194187164e-03
4.165800288319587708e-02
1.110682263970375061e-02
4.769346863031387329e-02
4.835088551044464111e-02
-3.716982528567314148e-02
-1.414452306926250458e-02
3.237812966108322144e-02
1.914821192622184753e-02
9.736842475831508636e-03
4.858613759279251099e-02
3.237517923116683960e-02
-2.178876288235187531e-02
-2.759050205349922180e-02
-4.014005884528160095e-03
7.087892852723598480e-03
-2.845182828605175018e-02
6.801626645028591156e-03
-2.548070624470710754e-02
3.705726563930511475e-02
3.619847074151039124e-02
1.103378273546695709e-02
2.045777253806591034e-02
1.958461292088031769e-02
4.886981099843978882e-02
2.509140037000179291e-02
-4.128324612975120544e-02
-3.759439289569854736e-02
1.948907971382141113e-02
-1.356886141002178192e-02
-4.721575230360031128e-02
1.171482168138027191e-02
-1.391124725341796875e-02
-3.889630734920501709e-02
4.930478706955909729e-02
-3.911559656262397766e-02
1.780239678919315338e-02
-1.535477209836244583e-02
3.391294553875923157e-02
4.623408243060112000e-02
-2.875640429556369781e-02
4.820973053574562073e-02
4.940208047628402710e-02
-9.234786964952945709e-03
-1.797264628112316132e-02
2.466011233627796173e-02
-1.588008552789688110e-02
1.629475387744605541e-03
2.822808176279067993e-02
-3.819356858730316162e-02
3.907350078225135803e-02
4.025001078844070435e-02
-4.699253290891647339e-02
-1.134912716224789619e-03
8.148643188178539276e-03
-1.840479113161563873e-02
-3.782398253679275513e-02
2.196563221514225006e-02
3.772084042429924011e-02
-3.287968412041664124e-02
-2.907806821167469025e-02
1.227030809968709946e-02
2.547569759190082550e-02
-2.745223417878150940e-02
-7.925685495138168335e-03
4.776193946599960327e-02
-2.311755158007144928e-02
-1.582998223602771759e-02
3.145260736346244812e-02
-3.266356512904167175e-02
1.530176680535078049e-02
-2.777150273323059082e-02
4.553411155939102173e-02
4.337283223867416382e-02
2.481382153928279877e-02
-1.312868576496839523e-02
-3.796788305044174194e-02
2.569988928735256195e-02
1.494714641012251377e-03
-3.543320298194885254e-02
-2.201388776302337646e-02
3.525314107537269592e-02
-1.101242657750844955e-02
1.305890828371047974e-02
1.786173321306705475e-02
4.105716571211814880e-02
-4.489498585462570190e-02
-8.772185072302818298e-03
4.791124537587165833e-02
3.450826928019523621e-02
-4.481013864278793335e-02
-1.824506907723844051e-03
-4.220964387059211731e-02
-1.826639869250357151e-03
3.791911760345101357e-03
3.713169693946838379e-02
1.486811414361000061e-02
8.583787828683853149e-03
-4.693759232759475708e-02
2.415231429040431976e-02
-4.488142579793930054e-02
-2.349844388663768768e-02
3.331578150391578674e-02
-2.231454662978649139e-02
1.312638819217681885e-02
-4.813157021999359131e-02
1.540832780301570892e-02
3.531776741147041321e-02
-9.393111802637577057e-03
7.747202180325984955e-04
4.976406320929527283e-02
1.367147359997034073e-02
-4.641397297382354736e-02
-2.357106469571590424e-02
-2.736148238182067871e-02
-4.309377446770668030e-02
3.205963596701622009e-02
-1.464186049997806549e-02
-2.634358033537864685e-02
1.140448171645402908e-02
-2.352601662278175354e-02
4.487542808055877686e-02
-2.869828045368194580e-02
2.071140334010124207e-02
-1.710667833685874939e-02
2.203477919101715088e-02
2.998543344438076019e-02
-4.017938673496246338e-02
1.268992014229297638e-02
4.084315523505210876e-02
2.451717853546142578e-02
-2.203949727118015289e-02
8.729944936931133270e-03
-4.321883618831634521e-02
-2.799533121287822723e-02
-1.032507163472473621e-03
-2.884109690785408020e-02
8.148050867021083832e-03
-3.724609035998582840e-03
-1.512527372688055038e-02
-4.679663479328155518e-02
-4.272821918129920959e-02
1.613026857376098633e-02
-2.434095926582813263e-02
2.477800473570823669e-02
-3.188794013112783432e-03
2.342644520103931427e-02
-7.576851639896631241e-03
6.083443760871887207e-03
-1.536112045869231224e-03
-2.430179901421070099e-02
-7.725501200184226036e-05
-2.268967404961585999e-02
-4.665214940905570984e-02
-2.337027899920940399e-02
-2.428141795098781586e-02
-3.409254178404808044e-02
-2.856925502419471741e-02
4.009043425321578979e-02
3.695752471685409546e-02
-3.277573734521865845e-02
4.574701935052871704e-02
-5.675878375768661499e-03
-3.424739092588424683e-02
2.487869746983051300e-02
-4.460427910089492798e-02
-8.334293030202388763e-03
3.597485274076461792e-02
-1.834562793374061584e-02
3.236529184505343437e-03
2.543537132441997528e-02
3.701224923133850098e-02
1.743291318416595459e-02
-2.450831793248653412e-02
-4.180413857102394104e-02
4.030257835984230042e-02
-7.724788505584001541e-03
4.164920002222061157e-02
1.773217692971229553e-02
4.950007796287536621e-02
2.132842876017093658e-02
4.391413182020187378e-02
4.371278733015060425e-02
-3.502746298909187317e-02
-4.951071366667747498e-02
1.968735828995704651e-03
5.009825341403484344e-03
2.509452588856220245e-02
6.374433171004056931e-03
-1.891760900616645813e-02
1.777523010969161987e-02
7.686774712055921555e-03
-7.993936538696289062e-03
-5.027453228831291199e-02
-1.630276814103126526e-02
1.856572926044464111e-02
-4.396520182490348816e-02
3.922513686120510101e-03
1.986454986035823822e-02
-1.907211495563387871e-03
-3.705354034900665283e-02
2.785048820078372955e-02
-1.304547116160392761e-02
-3.919088095426559448e-02
2.281376655446365476e-04
-4.845803603529930115e-02
3.492549806833267212e-02
1.596755161881446838e-02
-3.094982914626598358e-02
-1.853982359170913696e-02
3.928786143660545349e-02
-3.745704889297485352e-02
4.792168363928794861e-02
-1.821571588516235352e-02
3.191146627068519592e-02
-2.638154663145542145e-02
4.326245188713073730e-02
4.354736953973770142e-02
-3.996654972434043884e-02
1.903798617422580719e-02
-2.137711457908153534e-02
5.975542590022087097e-04
-2.683598781004548073e-03
2.181817218661308289e-02
-3.402115032076835632e-02
-4.295662790536880493e-02
-2.515111118555068970e-02
2.362578921020030975e-02
-3.849307075142860413e-02
2.444611676037311554e-02
2.074070088565349579e-02
-4.367846995592117310e-02
4.901774227619171143e-03
4.077866300940513611e-02
-2.867656014859676361e-02
-4.411192610859870911e-02
1.359018124639987946e-02
1.395948044955730438e-02
1.122685335576534271e-02
3.841806203126907349e-02
2.350484393537044525e-02
2.358849532902240753e-02
-1.169808115810155869e-02
7.483403198421001434e-03
-4.766502603888511658e-02
3.179642558097839355e-02
-2.990790642797946930e-02
3.351621329784393311e-02
-4.682337865233421326e-02
4.506074637174606323e-02
2.567989379167556763e-02
3.096077591180801392e-02
1.818347536027431488e-02
-1.475202199071645737e-02
-3.662302717566490173e-02
-1.910275034606456757e-02
-4.169583320617675781e-02
-1.061982475221157074e-02
3.427536925300955772e-03
-4.501788318157196045e-02
2.013696124777197838e-03
-1.637796754948794842e-03
-4.117801412940025330e-02
-2.562368288636207581e-02
1.499150507152080536e-02
2.777287922799587250e-02
-4.584256187081336975e-02
1.378926564939320087e-03
3.732045413926243782e-03
2.487812750041484833e-02
-1.188966538757085800e-02
-1.533813122659921646e-02
-4.564374685287475586e-02
-3.452184423804283142e-02
-4.931206628680229187e-02
-1.544086635112762451e-02
3.917928412556648254e-02
-3.711500391364097595e-02
3.598918020725250244e-02
-2.222498878836631775e-02
3.907889500260353088e-02
-3.194586932659149170e-02
-1.309157162904739380e-02
-3.056633658707141876e-02
-1.809426769614219666e-02
1.294874772429466248e-02
1.439790474250912666e-03
-3.460727259516716003e-02
-4.028058145195245743e-03
-2.606224454939365387e-02
4.075729846954345703e-02
-4.637155681848526001e-02
2.543405629694461823e-02
2.488969080150127411e-02
-8.600765140727162361e-04
-1.664343290030956268e-02
3.212513774633407593e-02
-4.631118103861808777e-02
-1.095468644052743912e-02
-8.572607301175594330e-03
7.812644471414387226e-04
-4.112357646226882935e-02
-3.876567259430885315e-02
3.014077804982662201e-02
1.601321622729301453e-02
-3.902997449040412903e-02
2.281525731086730957e-02
2.974828705191612244e-03
2.868246100842952728e-02
-3.199878707528114319e-02
1.622874476015567780e-02
1.945119164884090424e-02
-4.151427745819091797e-02
4.107775539159774780e-02
1.532297395169734955e-02
-1.758111082017421722e-02
-1.615748926997184753e-02
-7.110566832125186920e-03
4.788195714354515076e-02
4.218208417296409607e-02
-1.843718811869621277e-02
-4.508118145167827606e-03
-7.065161131322383881e-03
3.253962472081184387e-02
3.845026344060897827e-02
-4.053391888737678528e-02
-3.767324984073638916e-02
4.389577358961105347e-02
1.337129063904285431e-02
-2.636431530117988586e-02
-3.258424997329711914e-02
-3.469442203640937805e-02
3.087532147765159607e-02
-2.611500769853591919e-02
1.171090407297015190e-03
-3.794542700052261353e-02
2.275153994560241699e-02
-1.823373511433601379e-02
-8.906952105462551117e-03
-1.657591783441603184e-03
4.446845874190330505e-02
-2.876701764762401581e-02
-1.190844178199768066e-02
-2.712579630315303802e-02
-2.598386956378817558e-03
2.403541840612888336e-02
-2.434028498828411102e-02
2.588102780282497406e-02
-4.892470315098762512e-02
-1.728113740682601929e-02
-2.834186702966690063e-02
3.174992976710200310e-03
-3.940213471651077271e-02
4.084944352507591248e-02
